{"ens_weights": [0.9369399538702111, 0.01706639851669181, 0.04599364761309518], "coefs": [[0.35590784289364674, 0.6619072989241688, 2.1965586865131637, 0.22640059876161472, 0.367780674748936, 0.75001141066143, -0.03412768405681, 0.013805698997578053, 0.09338127043690216, -0.4574374820846436, -0.15722798164546584, -0.817921438124755, -0.8199487455139879, 1.404593807149275, 1.105746370722613, -0.12274218367690962, -0.985529170143236, -0.5702390736367935, -0.6213972107140543, 0.09474522444669133, -0.14084215190045327, -0.03784390742932826, 0.7023106217547821, -1.152077509324458, -0.7370626338996747, -0.23938282530576893, -0.40149484493224774, -0.2961138738525495, 0.5822634561795769, 0.5487414845715078, 0.1858677449783185, 0.46102291664189254, -0.17964990774387712, -0.5217152775148302, -0.28892906263397267, -0.3962474833814079, -0.7307384335326196, 0.23717106372013236, 1.0909429875341488], [0.15778294787987335, 0.11277970421588496, 0.08262321432242994, 0.04949110183636125, 0.06700007762109927, 0.7741483381672593, 0.28535462051653565, 0.18010571104613715, 0.2756735774771891, -0.28797306947853424, 0.4539606545595037, -1.4985142630051058, -0.21241296607329224, -0.8539549520334971, 0.17721934411452067, 0.42908374198036703, 0.16412081378414706, 0.535408938913158, -0.05670935137196119, 0.5347195856488742, -0.6719118232784953, -0.5653259770087002, 0.1820806322963116, -1.1773548502602502, -0.598860642314027, 0.314583292182471, 0.5503464961985228, 1.405113815363396, 0.08847705262384759, 0.20392369755048936, 0.31685358741827135, 0.3458599197168193, -0.7457492168197266, 0.45508099763689575, -0.43412138427878977, 0.5109453569792898, -0.08142732313549786, 0.9590913104383685, -1.2268133883278642], [0.17368728694612223, 0.11439587942289772, 0.11417238065877179, 0.06359781926658348, 0.061715804829253186, 0.7922637961473257, 0.33080927636872476, 0.1863561634957306, 0.24465096747313891, -0.3296960055800293, 0.4679389021927157, -1.4950590693343633, -0.21531130931963435, -0.9615155732901353, 0.25364533102584413, 0.44491629036425234, 0.16611744912394819, 0.5224318697960927, -0.013020026933378781, 0.5713031353299672, -0.7227281472113671, -0.5994394901781546, 0.23467822254815635, -1.1919755445841886, -0.5717586358489789, 0.3243780152999684, 0.5435190075008535, 1.3553923638483443, 0.13824945273912642, 0.17123729294134324, 0.33790498363148114, 0.3823269880593529, -0.7758236133091284, 0.00996329176242998, -0.4095772293736203, 0.5452394528588104, -0.05496252100532455, 1.0285210839177132, -0.9219200473947953]], "intercepts": [-0.6095162058331325, 0.18275556928425424, 0.19726403077482574]}