{"ens_weights": [0.9108631234833435, 0.018150465982787356, 0.009549165035483467, 0.06143724549837394], "coefs": [[0.3478498057022427, 0.6507393874402232, 2.2620844385600067, 0.22007030379061507, 0.3351816041986838, 0.7212961111790895, 0.00660454949760868, 0.04474795260585517, 0.1446754636354016, -0.4354934649481256, -0.11818081609203789, -1.0052339746723524, -0.7340529291091454, 0.9210228498171235, 1.207902183432533, -0.023943040534263167, -0.8687788314181919, -0.44819929768486444, -0.6955351132900952, 0.010754222567786327, -0.20546230604460025, -0.05593695442686824, 0.6634364065544734, -1.14348844253769, -0.7779901399365612, -0.20577843846317556, -0.3508685430777496, -0.06929857149207666, 0.5321073349164415, 0.5962841779429618, 0.15632113356210386, 0.41055837001468853, -0.20222242837333743, -0.5829162065850566, -0.26294183564743584, -0.3504169385005734, -0.7877034709152313, 0.32443549118235415, 1.0179587816774982], [0.16086706113637134, 0.10095862870100364, 0.04113850203972997, 0.0611137304455325, 0.027780955473734204, 0.15642973192986256, 0.17413640851673842, 0.19777440634423815, 0.5746559887606297, -0.05391842249440139, 0.17718953501120394, -1.075806525585227, 0.04838064884706799, -1.7542905410164769, -0.3139105010798589, 0.5769785779565256, 0.44024700455637983, 0.774414883389721, 0.3786410498386844, 0.5479167218788433, -0.3620213566855696, -0.5908079138658919, 0.20312190419069984, -1.2188213292701942, -0.596662799284665, 0.33740600393344083, 0.4849383743250232, 1.3866376357381194, 0.11843383919085286, -0.19467360651446824, 0.29310648737985967, 0.4344155055422299, -0.6925283440679434, 0.7026218017469865, -0.5889870016515725, 0.16686390091209652, -0.3675132036273647, 0.5733892927800355, -0.33591366767368974], [0.15977797653547976, 0.11124065237518711, 0.10938298942178677, 0.05167472779881835, 0.06924526753756743, 0.8330743316028093, 0.3429786627515639, 0.22434662439716882, 0.3196816695598141, -0.23093418966277757, 0.42044561085363324, -1.7230893332828683, -0.1668770901617509, -1.2580770360007139, 0.09599386670323368, 0.5595550266023587, 0.2583235202689464, 0.6077809296537819, 0.08980415913371781, 0.5286611397108311, -0.8355871797966742, -0.5626766223492335, 0.22793494726658306, -1.1680610715854762, -0.5608634013377584, 0.423938536486043, 0.5520043458457005, 1.420434518331445, 0.12614860289847785, 0.1615835754876271, 0.28587454380109234, 0.33535288133443464, -0.7482414398910432, 0.0701670032104864, -0.4384460840984791, 0.45512741245310306, -0.16523938077770992, 0.9618194275672803, -0.6969250021514553], [0.15352940032511464, 0.11032211814271091, 0.0929315105149912, 0.04698132228681442, 0.07210096356332861, 0.8236796795821918, 0.3289944762990439, 0.22548041150648995, 0.33639050901885437, -0.211189944944399, 0.41502133897844823, -1.7373823777814705, -0.1701148953171131, -1.2059337633584721, 0.06662906353068847, 0.5503376530647659, 0.25360104646394327, 0.6093072924498021, 0.07716769582840999, 0.5117982310013839, -0.7938680802447186, -0.5524697631595827, 0.2029185180671269, -1.1696047789714283, -0.5719412114915241, 0.4193513206238949, 0.5507849804069885, 1.453159179305694, 0.10364047560235692, 0.1752289486693229, 0.2746243458170625, 0.31832134655602584, -0.7409494195126127, 0.25354398473315987, -0.44623579208886677, 0.4424182057529873, -0.17349084605327064, 0.9360963873453009, -0.831337847027605]], "intercepts": [-0.641584178794396, 0.1504611224956308, 0.18650337625516014, 0.18099409263497285]}