{"ens_weights": [0.9186478847352123, 0.06325955708814748, 0.01809255817664176], "coefs": [[0.3857499290592674, 0.7215495423001761, 2.2098204452725665, 0.23158633173950094, 0.3858134876003246, 0.8375413202575306, 0.012158891217221201, 0.03230038018434772, 0.06759018442936059, -0.46390931572898375, -0.18663673775651132, -1.0804875054579783, -0.9049987846228403, 1.5494938657079926, 1.4579646388329286, -0.2084459155977784, -1.16378596124103, -0.6551548927948349, -0.8565157331432949, -0.03543502730815857, -0.05359696139874621, 0.0314572655475816, 0.739813571337353, -1.061339099177292, -0.6322803853865254, -0.2048829874126184, -0.40552625329396447, -1.154819182505524, 0.5914398893911604, 0.8108688211396567, 0.20945849238372627, 0.44473326231983656, -0.06133418849346398, -0.8370568173568714, -0.000829838472961743, -0.6207012165553738, -0.7527450251146843, 0.37625052942247583, 1.0536395852185358], [0.14845769959283578, 0.11381022366239375, 0.07416365637101749, 0.04749315149799512, 0.08042399674119476, 0.715204854304261, 0.2886916850820782, 0.2189305192626454, 0.4141894286352653, -0.19791264113806506, 0.4520274009583152, -1.7177712890966368, -0.1891794020225789, -1.12068843081628, 0.12005603237249506, 0.5017762882750618, 0.23200677304755066, 0.5993284356426625, 0.030060261532718582, 0.5101025232827674, -0.5104890263578425, -0.5764978926554616, 0.1196039326340802, -1.2158438892974013, -0.6115453941292247, 0.31087978100021973, 0.6137370857689536, 1.503377931158679, 0.01385851525435792, 0.2551199499412049, 0.21988619903031748, 0.26228105286257875, -0.721110810471773, 0.48592352987442067, -0.40512929316690227, 0.39941551876099546, -0.16309852309755254, 0.9287356585159607, -1.0724869328648767], [0.16591471062341073, 0.11665964832237108, 0.10419453685176855, 0.05723484367342583, 0.07536339396938195, 0.7406517423496587, 0.32644509410380224, 0.2204921428409794, 0.3779727440173646, -0.2435078140902002, 0.45099928419470536, -1.6810594272400174, -0.1912499788179433, -1.2171129693507634, 0.18540531401277102, 0.5270661340835137, 0.23495501689384404, 0.5887037322414804, 0.06422651713190808, 0.5491189824616047, -0.57976285657451, -0.6003439249280051, 0.17361713992983305, -1.227094844141731, -0.5887854007701445, 0.32165869259878, 0.6016241793487864, 1.4352531462981515, 0.07119262313993358, 0.23350349573166904, 0.24195323722140774, 0.29928230762403357, -0.7392230117546904, 0.05257661227992782, -0.37900633361218883, 0.4339281679501634, -0.13768447883047072, 0.9954617945685662, -0.7732819961586129]], "intercepts": [-0.7814427828711171, 0.17335995798741538, 0.19199376619848357]}