{"ens_weights": [0.9290857461004184, 0.0543823301417025, 0.016531923757884596], "coefs": [[0.3582047870487417, 0.6954783659810094, 2.1589702379669466, 0.21591675697201984, 0.36255661601556416, 0.8516558399351312, -0.0032084892617988622, 0.0052607086142114415, 0.002191845142487688, -0.4846892283292086, -0.2504345697505799, -0.7411665575753237, -0.8913736632656002, 1.5181476367020201, 1.322465660817051, -0.08580396544055405, -1.1432127391778215, -0.5515787496485047, -0.7890346312203098, 0.022613201403756108, -0.13795453910024744, -0.04089825158013117, 0.6491518826299428, -1.1162741756907848, -0.6832344214625409, -0.22524095928654156, -0.255568820128591, -0.5069272503409611, 0.5289083694639414, 0.7388635679124269, 0.1337026736475489, 0.39518670181105664, -0.12271843051109314, -0.761104854028935, -0.07194267769062662, -0.40425296883934164, -0.755369096331176, 0.3908016249940133, 0.9814775206658541], [0.150706115866253, 0.09064463583740336, 0.07472181340783644, 0.047927522430554224, 0.052499309918891186, 0.7368680351014194, 0.29739877474416704, 0.1652183036040107, 0.24198388263073212, -0.27161315159030447, 0.436482109915827, -1.349456273815725, -0.27750747139729814, -0.6867662643329133, 0.0569777269941409, 0.5831674404329521, 0.11820972535861676, 0.5005747390109256, -0.03777421550863842, 0.499211297718219, -0.7425360550205724, -0.595436991925016, 0.13708858908281166, -1.1364790769913, -0.5452138120412137, 0.34139362567849524, 0.6130488457597282, 1.3570909338521608, 0.0775845639168731, 0.2740084318306985, 0.30628762636678597, 0.36358333632639483, -0.6927496340085391, 0.5539651262734174, -0.43383489222549293, 0.474341348968148, -0.09588085993141923, 0.9187748085236505, -1.1604838510675763], [0.16744759773767987, 0.09427078315727118, 0.10674303761922584, 0.059226223123738805, 0.04666860718926761, 0.7689884593596257, 0.3480368132168246, 0.17660124203064742, 0.20974061018808046, -0.3068421679592091, 0.4521421936683337, -1.38374475872391, -0.28685568457581445, -0.8145908473369002, 0.15013344775375168, 0.6019123049564344, 0.12034546448954361, 0.4887335841059909, 0.005244122360749066, 0.5407180391764863, -0.8019938404696052, -0.6313855124754514, 0.191457944706239, -1.144127618919724, -0.5201457631971199, 0.35189934287570146, 0.6045391012600685, 1.29133593300678, 0.1331897043862551, 0.24332071538970246, 0.33290582929347756, 0.3906682575221899, -0.7174597407909598, 0.0728902037443483, -0.40225951677041777, 0.5201126581260546, -0.06504168121518379, 0.999323704011753, -0.8601029761365313]], "intercepts": [-0.6203904512124054, 0.2568816805825528, 0.26492239178074567]}