{"ens_weights": [0.9376794349518751, 0.04984757205501924, 0.012472992993083831], "coefs": [[0.37444602033629726, 0.6730367847247186, 2.1319962013035747, 0.21429360213652365, 0.3691888896358041, 0.8313384772528485, 0.0013971496000749189, -0.0007482979190914876, 0.06130334676030397, -0.5138754158805549, -0.13286327876529896, -0.9021223994690148, -0.780105651275163, 1.0959461362454328, 1.2097885521942686, 0.05941670334552905, -0.9773179473951528, -0.4913458159509994, -0.7719523955862471, 0.005086077083315117, -0.15277820924085656, -0.0190218814465921, 0.693998786387057, -1.0942951296490702, -0.745232078781288, -0.20938191248511076, -0.2551165346672521, -0.6144035879716571, 0.5496305144278, 0.7138203339207186, 0.2024349420434109, 0.40178272649790525, -0.1320944645366254, -0.6339200316865827, -0.22837000062451873, -0.5605986153376303, -0.7816363556885105, 0.3603183873443065, 1.1886361975710165], [0.16080965265234973, 0.11425309083670601, 0.0768428422333872, 0.04671494506686974, 0.05857685197131236, 0.7580249400496583, 0.33813342388483963, 0.16067926015514383, 0.2387613096575862, -0.2668408640655036, 0.409329374253921, -1.4162499565478883, -0.22075017206767494, -0.8937098418121657, 0.01572660166080143, 0.5317593119844641, 0.2620993321426983, 0.5718188202963006, -0.045106564852270756, 0.4875462479104818, -0.6211657762001392, -0.5642890812523665, 0.186500005181709, -1.2139409559622245, -0.5896950280710216, 0.3490040236011462, 0.5814838265319048, 1.5734826489417746, 0.013886491400476781, 0.1601324260187823, 0.25557457276578743, 0.2934744150556284, -0.6901563285644575, 0.6268922028588862, -0.4598766825195461, 0.44347682275465755, -0.18735493813902793, 0.9050928999923389, -1.106392817590067], [0.18176557033783927, 0.11497704280388987, 0.11482675446295165, 0.05909176714514371, 0.05057817021272046, 0.7917061024021471, 0.38666843428884695, 0.16517539366481515, 0.21411196994298987, -0.32135494914803114, 0.4185650006457776, -1.4218423018442352, -0.2128218429027321, -1.0401079544029905, 0.10680345559994753, 0.5608503722152753, 0.2690713928558023, 0.5609453259645324, -0.011711099335539852, 0.5347782611875541, -0.7209367855034237, -0.5891937186799501, 0.254253409367491, -1.2334618764252583, -0.5620304236410234, 0.36204269910228304, 0.5751311186866043, 1.4810211724929263, 0.07853856675563603, 0.13078564518158842, 0.2897595055722117, 0.3403673383673781, -0.7080252624862624, 0.10883153785615703, -0.42984221186302485, 0.47850839945281665, -0.15562481507219694, 0.9883372333182227, -0.7571804937139501]], "intercepts": [-0.6555704184423313, 0.2218374873814484, 0.23302964995351064]}