{"ens_weights": [0.9252583669415755, 0.06290566096226807, 0.0118359720964499], "coefs": [[0.36605925633256353, 0.6962625383536156, 2.2337154716270184, 0.21779727833211324, 0.38190119548806045, 0.7372660980235834, 0.014514244651633697, 0.031148518474053342, 0.09429103572894235, -0.43856950250723686, -0.07299005940777839, -1.0394533179135963, -0.7604338341399229, 1.1425974054458106, 1.1964230634465818, -0.12329252914056253, -1.0000092667507396, -0.5029228745410435, -0.6261549472729091, 0.04248978861267884, -0.3632070648992318, -0.019783702677326986, 0.6905775465370363, -1.065249442323067, -0.7351931082761739, -0.24326672511565775, -0.28460681485440825, -0.3267662443046505, 0.48247610850791794, 0.6545646604430978, 0.17905187503908349, 0.44235757608043996, -0.127237435714476, -0.5676740615383945, -0.20272147373865576, -0.4378443873648368, -0.7805479054709127, 0.24168420299761934, 1.0733106421557819], [0.15557983040667422, 0.09763469091261968, 0.07861409227855737, 0.03751306201822502, 0.06632203801637229, 0.7642820982762834, 0.3069735963201973, 0.2481511671468919, 0.2892279067747077, -0.1993377496297229, 0.5239559665493174, -1.8108119709964303, -0.15175891478706224, -1.3954800070925448, 0.22231880602902035, 0.5538593035624003, 0.21261124608082288, 0.6237768043971939, 0.057113776272862474, 0.5133522438856801, -0.720344887238251, -0.5791568151994964, 0.17496053965540986, -1.2316486428372426, -0.6025415570293624, 0.3779573358233861, 0.6153056100524193, 1.4004998274692204, 0.062120829619593324, 0.19665074246591233, 0.2696625446045562, 0.38475525660610327, -0.7391320134306734, 0.35949070957216256, -0.43307812714991883, 0.4876285188636776, -0.10354695641339422, 0.8900475630453221, -1.0781006934698893], [0.16899462835812107, 0.10239389746774759, 0.10213304063679633, 0.04567012560720404, 0.06308657238194612, 0.7823772698140307, 0.3291679073041946, 0.24510408549374213, 0.2657377128925578, -0.23932165450833265, 0.5221841200854936, -1.7692167738876319, -0.15310638571533342, -1.4772223844572787, 0.2714394603791284, 0.5745515272975086, 0.21550112467791177, 0.6138536878270824, 0.09101563719321233, 0.5458112906457482, -0.7758054051593126, -0.5940239475278659, 0.21592027270163083, -1.243512349083432, -0.5821869374620134, 0.3823186380283434, 0.6097156568918568, 1.3500709478523463, 0.09891111446190592, 0.17895505546031654, 0.28863667374838814, 0.41733770940168385, -0.7561160527637727, 0.03535654836417659, -0.4188064720970061, 0.5132996519331672, -0.08542423690184602, 0.9412128279228664, -0.8496056520134627]], "intercepts": [-0.6737929829250641, 0.12244101440782754, 0.1360326671901154]}