{"ens_weights": [0.010803723570691603, 0.9197313399673761, 0.06946493646193297], "coefs": [[0.21777141478992051, -0.027299767430933004, 0.3442915144907627, 0.027579741429418887, -0.05290625993730652, 1.0090856904788823, 0.6366576753224581, 0.22400712845643617, -0.4225848146313691, -0.5978489423190935, 0.6276459359901265, -1.6418093776982465, -0.18191138217336908, -1.9001714632601627, 0.33888351135664485, 0.6255134614685023, 0.2637065706004156, 0.5584563742113735, 0.13067622340314772, 0.8390569341315941, -1.5620814838683108, -0.93462352408953, 0.4181269486110605, -1.4715193492952878, -0.321339007432083, 0.6735703384936026, 0.6277512164239468, 1.0168662938338793, 0.3428309620547239, 0.25153330931616813, 0.5062221470113151, 0.5913151340787777, -1.1425566236630909, -3.694690744961524, -0.023016960521797823, 0.8165595847473007, 0.22142926155825018, 1.4124798035372133, 1.1023923512510587], [0.3824296049523091, 0.689977493347733, 2.2100115714481383, 0.22219994457221112, 0.36571646594984414, 0.8092638364754937, -0.08825127858302742, 0.008165768460841214, 0.0689606519996718, -0.5408791293740751, -0.1879934696369529, -0.7525793416700598, -0.7992609345886023, 1.266194042213159, 1.1628410569944765, -0.1042025816600826, -0.9621800667726652, -0.5403150182958684, -0.7063894602139162, -0.006554316260902488, -0.2818250990544225, 0.01331362369296096, 0.7133457116016587, -1.0577204324048657, -0.663873647845252, -0.237957492682427, -0.3603005687463801, -0.7691093335569891, 0.6086286463329375, 0.8459820925838555, 0.19102619609162563, 0.43268081323618196, -0.11094915531820418, -0.5920493157321054, -0.1833254261999314, -0.5912613760943635, -0.8650384323898307, 0.25494127186779386, 1.2934203162218916], [0.13491287424499976, 0.08096481050873183, 0.08247196451599868, 0.057635109587252806, 0.05691147836707889, 0.7730098200547163, 0.27029626893712544, 0.18473781392993455, 0.30241218544251275, -0.2639123134251756, 0.43509477284128434, -1.4510012752305022, -0.2260306185434827, -0.8563597457286326, 0.0433965247708617, 0.5778094493428948, 0.15846931074557105, 0.5338253063982362, 0.01952704557797254, 0.5400156372362216, -0.8260673660377098, -0.5762562388045631, 0.20649603790555784, -1.1977322636103926, -0.49623458822405264, 0.3631461546893182, 0.570129433568345, 1.4491209375146976, 0.08645277074419935, 0.2684882434196458, 0.29632537826829847, 0.33968421493314477, -0.772931079047735, 0.44912651869318587, -0.4252560023051817, 0.4083658577932042, -0.11845833911903407, 0.9139905554528963, -0.9771313179505732]], "intercepts": [-0.16484670442093968, -0.6833129623588565, 0.25063727254913337]}