{"ens_weights": [0.0031217241674365293, 0.913234920153303, 0.08364335567924919], "coefs": [[0.17696293339151192, -0.017402147218130794, 0.3255357079377028, 0.011276661522408325, -0.06248743396875303, 0.9615245975896916, 0.6131800175177399, 0.12895363141313015, -0.6269322216515092, -0.5902281194474673, 0.6212928364300576, -1.1863860906805532, -0.20434622287765228, -1.7177522410272026, 0.22897583734081065, 0.6068155364998747, 0.2582649090360739, 0.5770478613731272, 0.17239897083345954, 0.8455317864416478, -1.6157954401276768, -0.8453106366927742, 0.37174766764563655, -1.410600760534613, -0.30796824155024155, 0.7070424830966326, 0.6358524574107709, 1.2294660448059676, 0.31889139708586056, -0.084876764854545, 0.4620914045549586, 0.6402910365424059, -1.0249577826552059, -3.574524750142931, -0.03416573394098124, 0.8843559041137248, 0.1488618224560086, 1.3929598360373718, 1.1039175726441326], [0.3530369795086757, 0.6641433868777525, 2.2546681734353187, 0.23812204817831734, 0.32395349028214215, 0.6964319825398342, -0.09943949195114211, -0.0038711975103811066, 0.15435624209222087, -0.5094521460474247, -0.17171114831106213, -0.5886071290168898, -0.835514148987897, 1.3622925573971156, 1.0780066832413315, -0.2010078997295393, -0.920393784964148, -0.3673411783356567, -0.6383351168187107, 0.04733676638406799, -0.41267920172384887, -0.0833376454734588, 0.646518032933743, -1.0640338719005147, -0.7431975639173868, -0.20588729131932543, -0.35527653317062585, 0.2385249943380252, 0.5210548267789162, 0.46503014981854424, 0.19129449340197532, 0.4243050433922303, -0.19194508772679825, -0.5007626006331614, -0.2841381160723518, -0.3652557294953411, -0.7345097796041427, 0.29501022544291183, 1.067363112172466], [0.17753757803161066, 0.07640829769851822, 0.02281977436940654, 0.09394647677356349, 0.0266556204824859, 0.1196592272802899, 0.13771925352467998, 0.1408439876635832, 0.5124202222236177, -0.1165986865065852, 0.2647251531445468, -0.8067908638036485, -0.10755886947029816, -1.1770518697890453, -0.3728655672248975, 0.6469006168538176, 0.36717021323219273, 0.630675248777363, 0.26470852114120175, 0.6152915395374442, -0.569299176479899, -0.6321951513628126, 0.2825561429820868, -1.2792242705055092, -0.5348417695426116, 0.30345787152805925, 0.4570811552927979, 1.4656940719023963, 0.14821487204951178, -0.09097348894572024, 0.2835492861893709, 0.5519980569264081, -0.7493308460477385, 0.6563068987652311, -0.5808835303456614, 0.27601047843125315, -0.34977359921209683, 0.5892395114199785, -0.33892146554106856]], "intercepts": [-0.07859534882321532, -0.5222928881848885, 0.251978293542914]}