{"ens_weights": [0.9258238595152933, 0.038377027976622305, 0.03579911250808458], "coefs": [[0.3867107209265304, 0.6956973056030817, 2.1812063212437334, 0.23062866619010047, 0.3658073030518445, 0.8283045461835591, 0.04195376598231777, 0.09752981575790183, 0.21125126298607272, -0.3577048009182375, -0.1565846281471889, -1.4043168881237498, -0.8808155655751273, 1.4826842808125278, 1.3119696887047423, -0.10129648927305408, -1.0368438637329618, -0.5724914806464908, -0.9427734965664273, -0.04587721455200646, -0.002608056777783374, -0.04435060077591546, 0.6614188478766415, -1.2008431255028502, -0.7326901683085719, -0.26300494209615993, -0.35599651385987185, -0.3712984595408097, 0.5638422518990766, 0.6057243398027117, 0.18059904044539254, 0.42997660057543696, -0.16445892545295276, -0.6965855304051835, -0.11366487033638842, -0.4779487577602235, -0.8766082546666373, 0.3669386651435627, 1.0583018217476008], [0.16854383691729413, 0.09857094340410691, 0.09407631608051077, 0.04699767470883847, 0.08050998555947628, 0.7062787787373771, 0.30945675418091056, 0.13310401433893151, 0.25519995887602065, -0.30252700238550023, 0.3863531757679915, -1.2622540548984882, -0.202610308352451, -1.2054425161363325, 0.1713503934006449, 0.5338466887460374, 0.2419057024595647, 0.6709810341787014, 0.015580630304272595, 0.5198202393729615, -0.5295924758235092, -0.5837386631088594, 0.16127423912943192, -1.4117576755083134, -0.5458368509019965, 0.36376621107667323, 0.6310098674129875, 1.4120206124716412, 0.09781899063021196, 0.21474807041502658, 0.31270649961024904, 0.3134525577393056, -0.7300799979143108, 0.33761394316796633, -0.4230586698890212, 0.5000453961350939, -0.125949540695227, 0.9411846385808568, -1.0042241426911127], [0.17698523997464857, 0.10150103936672113, 0.11019188530844864, 0.052878745245826406, 0.07826952674497935, 0.7270195973263244, 0.3359527100045113, 0.14481950819357312, 0.24963999783126425, -0.31218131726361353, 0.400070318047232, -1.3209916168268305, -0.20193626567826362, -1.2586993427895272, 0.20009988426275574, 0.545485251824303, 0.24287411652976074, 0.665170436925027, 0.031335116239707965, 0.5376016942157064, -0.5684715281139185, -0.5949866683412122, 0.18983928254532048, -1.421368575889806, -0.536615914946185, 0.36473566465802126, 0.6262675534717794, 1.386212272178243, 0.12633953452421123, 0.19816410065455298, 0.3235274460023975, 0.33293617437972617, -0.7398518380189962, 0.12749025731897343, -0.41467230210458433, 0.5135681663611605, -0.11814339832639818, 0.9695694626517029, -0.8534829885814036]], "intercepts": [-0.7395669262671299, 0.22561162462667914, 0.22432919730375958]}