{"ens_weights": [0.9209514923617192, 0.04569324192001796, 0.03335526571826101], "coefs": [[0.37879128971047304, 0.669175445084976, 2.2735190523329214, 0.2105849776126751, 0.38726266888865596, 0.671818956749871, -0.08293606652409742, -0.008587916318805788, 0.08619994729815324, -0.5307353156544233, -0.1357054619499811, -0.640703701520877, -0.876402182161333, 1.354655673863869, 1.2421046500970623, -0.1987427586033544, -0.96536648961393, -0.5096081591156313, -0.6872902923865785, 0.009240985026638449, -0.18567515117623856, 0.0370345522953267, 0.712284867023267, -1.1254473824832234, -0.7204215581420526, -0.2504541222369511, -0.29413167035645116, -0.5760467273056434, 0.5944658207701576, 0.64501878618049, 0.1632245339814864, 0.44759660090156445, -0.09733909239265937, -0.6349386765105789, -0.2082226000788942, -0.44984813310479194, -0.7069435609414735, 0.22890917158318258, 1.1303942411335568], [0.16755703414927253, 0.09968736538872969, 0.07834218646205648, 0.05986665135098407, 0.07289475509416715, 0.6753555159713295, 0.2765453869954299, 0.20884173771164893, 0.2883007857289256, -0.2868713335726871, 0.485316530119709, -1.4408594256584817, -0.19670359742453905, -1.0474790509338405, 0.1768651605635538, 0.45146625759763775, 0.21073589798159187, 0.5095701448747784, 0.10217438463247537, 0.47694080504726577, -0.6487895751110289, -0.5709078011690782, 0.16224176328857634, -1.2240869996792767, -0.4927026558408194, 0.3455270039753079, 0.6337458368510159, 1.3525126760562847, 0.058641440387336964, 0.210851818473789, 0.256556306772367, 0.36318005120552665, -0.7170814729753084, 0.31105242068094907, -0.43055157132938665, 0.48078211592130266, -0.1057805083101986, 0.9592232961011997, -1.0080965557842816], [0.18258019650344812, 0.10307474735749589, 0.10504734470361941, 0.06802350826560746, 0.06940292790580142, 0.6949376496477198, 0.3010384357720337, 0.2095743494435808, 0.2661385983035125, -0.3254608322280676, 0.48997257840932734, -1.425354372649866, -0.19423088893455726, -1.1412802507811455, 0.2312185890180399, 0.4629037528295383, 0.21934283045722183, 0.5051700055901126, 0.12772236854292035, 0.5072207564923888, -0.7089638562015134, -0.5892709239891539, 0.21182264779982435, -1.2219199640690894, -0.4754311066711508, 0.3460686109620919, 0.6255822288685849, 1.2768573701882993, 0.09913230823206143, 0.19767660680192595, 0.27869695780051124, 0.3945473103247122, -0.7311725398212038, -0.024203106201958587, -0.41486907529138334, 0.5059392888840619, -0.09281441846419324, 1.0026987630530155, -0.7659050452514424]], "intercepts": [-0.6406495579306866, 0.20662919725834064, 0.2108464066673239]}