{"ens_weights": [0.8988443033324538, 0.07664896080776573, 0.024506735859785144], "coefs": [[0.37792208352476336, 0.706886315395731, 2.22610548322955, 0.2259628003514699, 0.3800327083860057, 0.8259754935325747, -0.06578476575505783, 0.03889998314067248, 0.06997086788209649, -0.45192286671793996, -0.17305415912616462, -1.0152319174851676, -0.8228242482467523, 1.7287142179803419, 1.2961938429537423, -0.23329782029156368, -1.097121465626964, -0.6191033386406648, -1.0237085526658656, 0.031710574652853075, -0.12381311380021008, 0.027990213012850675, 0.7255567743726253, -1.1439474434091286, -0.742568758651578, -0.2756005322373261, -0.22060946734155956, -0.7424299757973533, 0.5953439793974143, 0.6031715477407247, 0.17448685335349826, 0.34514928485552926, -0.025587300673330447, -0.651787960181555, -0.03282180336934644, -0.6329398747830164, -0.8343100043690137, 0.3260600712550207, 1.054652206916599], [0.13755684398728715, 0.09217274304890494, 0.08953526391468644, 0.06030790388062944, 0.07118666991553341, 0.6487032451563515, 0.2069987668167159, 0.11012860590141307, 0.29307447629336214, -0.32843531734400927, 0.3761683060746701, -1.0246234112906398, -0.2666541004654803, -0.7510407088823053, 0.16477257423504663, 0.5243794333194186, 0.13971673667610224, 0.48291504472821817, -0.01207430796439773, 0.5011570868611681, -0.5571175479072521, -0.5447051509126637, 0.13501524362970443, -1.2975335942913924, -0.5552271459058904, 0.336930942030452, 0.601776849489458, 1.4355375292048909, 0.07528855152592119, 0.25614853519343306, 0.2674257404369116, 0.2984604369171277, -0.6711428046338987, 0.4688626271280985, -0.40614584676863397, 0.5366017913076001, -0.1244659032112948, 0.9287668672865282, -1.1216048641082268], [0.15516299517496157, 0.09767762165983945, 0.1296878039718444, 0.07008268525178842, 0.06391309263124727, 0.6994386829512517, 0.2684902634281626, 0.13171921223981015, 0.2762797477443347, -0.35798725155348854, 0.407930830398872, -1.129159692583821, -0.2666721806611541, -0.9045779467213673, 0.2186221733473769, 0.5548312284345369, 0.15529484697501356, 0.48574011705858017, 0.05347355422098308, 0.545088397100357, -0.6471154131266348, -0.5759122219048718, 0.19801855992343717, -1.3277156131642391, -0.5240815374584115, 0.35654358800817965, 0.5985177866707068, 1.3962470885769156, 0.13055546895462572, 0.22320220344121802, 0.29124167894121583, 0.3350902962076631, -0.7029684895128003, -0.03289321298198293, -0.388382992148254, 0.5659606600313337, -0.10609170538661908, 1.0037597271431746, -0.7456406840064653]], "intercepts": [-0.7711473645370421, 0.2820146716214761, 0.29671179263127884]}