{"ens_weights": [0.9199241498544963, 0.06998681626576493, 0.010089033879738933], "coefs": [[0.3652552832435775, 0.6715559075847133, 2.190229020310179, 0.22968409219982813, 0.36828447842861795, 0.6049028896083675, -0.0880869202624858, 0.030780314510266554, 0.11969009879051438, -0.4359909704906999, -0.11985711340711275, -0.7319639274215117, -0.8935422592129331, 1.6208112755610373, 1.2705170184659857, -0.22717866626845312, -1.0575497814384844, -0.46004390449710086, -0.8735393112874593, 0.020167872233839902, -0.012542063394521984, -0.06598837923952375, 0.6744071791316522, -1.214258973656754, -0.8094114943311357, -0.29037871881949623, -0.28107844336664334, -0.16199098231330958, 0.5277404974100844, 0.6660001767146068, 0.1752654550353049, 0.34570787720884644, -0.19416563129151304, -0.7296997082465358, -0.09115702906220853, -0.565796756246872, -0.6820498228471631, 0.3061659453747517, 1.1420117423527325], [0.16600399006921437, 0.09484449672696504, 0.07762086889381749, 0.06079884297572551, 0.06393758183406886, 0.7594195399871403, 0.268778467086686, 0.20225126170174906, 0.23091154352609283, -0.27067022271808266, 0.46018281898656976, -1.425485230724459, -0.2545265147165966, -0.8805660459057822, 0.16140627847110103, 0.5766373014830727, 0.1486163195504535, 0.5467715909897003, -0.07295075199073524, 0.4770261975619112, -0.5258100139124786, -0.5754835771080482, 0.17338602621213017, -1.3029419636636663, -0.576445429572261, 0.3540781437886743, 0.5947757729923467, 1.4794297847031783, 0.08918943040077468, 0.17055760998053765, 0.27738211136341534, 0.32995237611432776, -0.7397082909770081, 0.3410990366928454, -0.40471035284739226, 0.5313244828654095, -0.1083053366317092, 0.9610083897217541, -1.0950280419239389], [0.17833166686728547, 0.09937362912732499, 0.1017316234670807, 0.07041059294237566, 0.06080824880523279, 0.781365203457617, 0.30005195424663134, 0.20537113475331537, 0.21182178403734608, -0.30385454139900364, 0.4688783890807186, -1.430827052534193, -0.26057565263485244, -0.9305395547927482, 0.21602861476821175, 0.5767626793803862, 0.14641435880118756, 0.53473720628865, -0.05002078015947068, 0.5035293801934339, -0.5868209954283183, -0.5927153767495896, 0.21554272799483737, -1.3115472390879765, -0.5595491534821214, 0.3591610569153501, 0.586708914913429, 1.4423313915521212, 0.1279525893498471, 0.15031066600176668, 0.29486833466355317, 0.3519092521779186, -0.7488746773522842, 0.021225873399738433, -0.3866719573825149, 0.5604444144896749, -0.09020371413788048, 1.010142782738588, -0.8821305274495241]], "intercepts": [-0.6205256286804894, 0.22538817784839135, 0.23280687165447234]}