{"ens_weights": [0.9257619000052646, 0.05430953384481941, 0.007772594113315406, 0.012155972036602897], "coefs": [[0.36473254598274446, 0.6324898922327958, 2.124700435469265, 0.21932054718498328, 0.3458305494480757, 0.8195216989258551, -0.029850444940420533, 0.021623911700007516, 0.12226296953221603, -0.47384569627679674, -0.06937768680662194, -0.9869494813350895, -0.7430009751472078, 1.1292604168869005, 1.0754809398931533, -0.13127533572454675, -0.8892754177956348, -0.44336428122926386, -0.5944400760769982, 0.04702455717654462, -0.4128695588165886, -0.04353570526535751, 0.6686701447916528, -1.202534902666908, -0.7819303818866526, -0.2209234295238903, -0.19723903770302811, -0.00672481289744776, 0.5609936470874853, 0.5234057223314472, 0.20825026814625874, 0.44192748394900644, -0.1811287239195345, -0.5244080224730596, -0.2469798420580707, -0.45771679107072605, -0.7248174457131891, 0.2878465269925196, 1.0694608451253143], [0.17136412941904988, 0.0529114038457251, 0.03449063927714455, 0.08864376246854837, -0.0022382363693872285, 0.06293713252345025, 0.3045272218045595, 0.18359391600165761, 0.5491244978425068, -0.1451252753374729, 0.26133672336649366, -1.019978815901875, -0.11129147732569807, -1.1432031625038184, -0.1697942345175375, 0.49958393901691756, 0.33651370512168327, 0.6184805599353067, 0.16612607057001708, 0.6455945552107081, -0.3849588246510748, -0.6356588302789447, 0.27773943764915443, -1.3781260800874222, -0.6768468424789911, 0.26720908019530787, 0.41951413420563827, 1.4087398085855707, 0.21136637266884223, -0.025505803069560153, 0.29550447221878307, 0.48320071653708047, -0.7113567964125299, 0.4407985478708335, -0.5412212814985139, 0.37175540445528327, -0.30400632167015285, 0.6678531700811937, -0.43876411894985434], [0.1509455876904744, 0.07373216096595588, 0.08140597364346627, 0.058776175557323694, 0.05791166807969846, 0.7298544605788537, 0.32943395578065904, 0.19422700654555408, 0.33724978011901924, -0.2638160825281538, 0.4833004540323517, -1.629538279422636, -0.13693516411717832, -1.2262663320825877, 0.03353765078488045, 0.5818297850008423, 0.2671053279207925, 0.5967739256028339, 0.06466610200176247, 0.5748267414449183, -0.7766650571258714, -0.5640680076094937, 0.20350658778717828, -1.3209635108967768, -0.6935491851389675, 0.32258859466757467, 0.5592924373099714, 1.521037691693814, 0.13295550396338288, 0.24152428776381768, 0.3111517250128566, 0.3781055743418473, -0.7090320880976863, 0.48341831646153677, -0.5040505123360512, 0.42621052327858355, -0.19075065373069294, 0.8991734284437795, -0.9332898070058744], [0.16523335299937986, 0.04800386977221268, 0.03293344505015135, 0.08160909556362231, 0.016493137818219317, 0.19178989746461111, 0.3235756955870787, 0.21797937691775163, 0.5708497236440393, -0.13815432540405553, 0.351484235117112, -1.3673533532807864, -0.03771560525586824, -1.6291731844368365, -0.1021461611155528, 0.5835225239538417, 0.41390879720072554, 0.7029057940359458, 0.21886908569595054, 0.6303061806822468, -0.41644392149715004, -0.6106095514672008, 0.21393853696539197, -1.3624821617454714, -0.7010344060118453, 0.2835687850657147, 0.4548526456506522, 1.50551233561629, 0.14079097709218436, 0.00727629211316113, 0.2899780604735906, 0.44225402976110056, -0.7277365526339726, 0.7823561218208618, -0.5392014015601556, 0.38047857930075046, -0.28659479899109525, 0.6835898762334877, -0.8704571267405494]], "intercepts": [-0.5966147292083325, 0.1964154003147406, 0.1807112951290507, 0.15017125004959753]}