{"ens_weights": [0.9206430031073571, 0.07430448887903914, 0.005052508013601986], "coefs": [[0.39118778526714054, 0.7323142572512545, 2.2253154377016093, 0.22498251488895396, 0.4165794932441113, 0.9343872482170528, -0.08368941576494947, 0.016799098251383995, 0.08064351172543899, -0.47517520362771304, -0.25577728449948967, -1.026961721263059, -0.9638876636831232, 1.7266670205202017, 1.4736123708740572, 0.04836156879421637, -1.2341380909338364, -0.6906053017444033, -1.169783670788664, -0.009225372044948376, -0.2522136527550429, 0.09825547241990802, 0.7672060332076931, -1.0126218103991125, -0.7529422439579083, -0.14176503290100956, -0.4047327599761049, -1.3571734325164895, 0.677730544006334, 0.9883536330859448, 0.23420987826640177, 0.4342582084054779, -0.07911323181868236, -0.8905854180233433, 0.05868606073982496, -0.6179205108031959, -0.730020890683497, 0.26762395540769535, 1.102443036401797], [0.16525527331626538, 0.0982088157420465, 0.08080158952712184, 0.04588261850308483, 0.06721674039988808, 0.6751806900589536, 0.2295352734433183, 0.13179900622767368, 0.28785133597331736, -0.36564639730360426, 0.42906284298662867, -1.083449795951719, -0.22396037334842653, -0.7218763149729066, -0.02500898752033538, 0.5383864058077601, 0.21233068755211, 0.48036818079200505, 0.04409335709555161, 0.5327196846425932, -0.6508213685909618, -0.5827529077907472, 0.18811768463048567, -1.130768885334654, -0.593700636562481, 0.36019407713279916, 0.6243927612310775, 1.38203874354776, 0.08579106607606515, 0.20447542854924364, 0.3022194624271529, 0.2962102591798489, -0.7137824137334179, 0.5118162139039215, -0.4815018165915113, 0.4374317516498301, -0.14603023983442373, 0.8845262945746996, -0.9019092482990645], [0.17816810563923982, 0.10246236316155546, 0.10639180829365207, 0.054368172966083685, 0.06589613136832655, 0.7142903709793003, 0.2764788620595436, 0.14764247428838073, 0.2661160156705653, -0.3903973127722825, 0.4465151260529072, -1.1593237941749146, -0.2318420305251253, -0.8223819223534926, 0.03289166584906683, 0.5599507133088869, 0.21451895959044287, 0.4732954583613155, 0.0748888978617923, 0.5628803132032137, -0.7406825419245974, -0.6026720421656874, 0.23604894715550612, -1.1333985540592715, -0.5768281455962665, 0.3651733574621752, 0.6190311446084455, 1.3374608829289354, 0.13126595820294887, 0.18065012851522552, 0.32360012769757546, 0.32405110600360004, -0.7252589399328828, 0.1590444946345981, -0.4619591370650288, 0.46312712163335634, -0.12985854192302934, 0.937726125032428, -0.6667583202086619]], "intercepts": [-0.8097737669756272, 0.30433295544799227, 0.30132174208354445]}