{"ens_weights": [0.9192292784434671, 0.03340509728491187, 0.04736562427162124], "coefs": [[0.3599292059763556, 0.7084016887807815, 2.2195286254161952, 0.22914719656772067, 0.3615607676554355, 0.7715828219490114, -0.16564889417124118, -0.0348106407762282, 0.05165394122382303, -0.5180304378375624, -0.21524676717498353, -0.5778740792359107, -0.7787402471183388, 1.2022033106712764, 1.1191791114717082, -0.017865593366529087, -0.9664542194410314, -0.5321944388759504, -0.7145019793567747, -0.02282394037113455, -0.23261252818484549, 0.004207295142634404, 0.728350625262182, -1.0685172912996936, -0.644080383720897, -0.22719527711879747, -0.3526734877631969, -0.7553727211476071, 0.6127890956412428, 0.7589014931664845, 0.20465938825218974, 0.4400396167426956, -0.13404594061508118, -0.4524453155311217, -0.22094802110898198, -0.48084133985495703, -0.9640130287213274, 0.170943626402761, 1.2589300227956368], [0.1492060998106667, 0.10056929043694607, 0.07985834688029006, 0.0500619775587543, 0.07628310400407765, 0.7214927027423121, 0.29170630548351284, 0.15256665148544737, 0.21927092736068496, -0.26217430349892307, 0.4226159170282321, -1.2760289840791659, -0.21264912279665335, -0.82327245363899, 0.08171787896432219, 0.5319696413557067, 0.155266041439565, 0.508994495553893, 0.027422735625628553, 0.5398065859236987, -0.7040257572710775, -0.5522883294860522, 0.2362796862602559, -1.1676615019262837, -0.5938383198911075, 0.39889343195100874, 0.648396751907378, 1.3963509230186275, 0.07577105740730705, 0.11946197772855446, 0.32074310251131105, 0.2975984757797542, -0.7460388674123123, 0.3450207225395862, -0.41453517976485144, 0.4921995460015456, -0.1094004282915369, 0.9118242067257201, -0.9556596507062775], [0.16275286171814904, 0.10483979926767728, 0.10326395501803991, 0.056694688039751896, 0.07306178715036017, 0.7368139731742614, 0.3179011850805487, 0.15696567235138298, 0.2011232753162853, -0.28826043902404214, 0.4295537601595204, -1.2839244931107197, -0.21678420977748888, -0.8945156208100156, 0.13585546383644106, 0.5363162189036997, 0.1587208130841981, 0.5051496122264231, 0.045430656489109614, 0.5663314147936649, -0.761608300897997, -0.565413937485636, 0.2781570841397382, -1.1714803027817016, -0.5806912056731781, 0.4043788345279975, 0.638968058004265, 1.3571389820391522, 0.11340772018624883, 0.09555701309852117, 0.33690990055347503, 0.3192850809474417, -0.7607674074991637, 0.045306986190557785, -0.39597459033481497, 0.5172579578101222, -0.09257574343501378, 0.9540207825362058, -0.7578624588144621]], "intercepts": [-0.6883740560190089, 0.2694492165199267, 0.2701729339323167]}